digraph Tree {
node [shape=box] ;
0 [label="X[44] <= 0.695\ngini = 0.4676\nsamples = 1993\nvalue = [743, 1250]"] ;
1 [label="X[3] <= 0.915\ngini = 0.2532\nsamples = 1197\nvalue = [178, 1019]"] ;
0 -> 1 [labeldistance=2.5, labelangle=45, headlabel="True"] ;
2 [label="X[3] <= 0.805\ngini = 0.135\nsamples = 989\nvalue = [72, 917]"] ;
1 -> 2 ;
3 [label="X[40] <= 0.355\ngini = 0.057\nsamples = 749\nvalue = [22, 727]"] ;
2 -> 3 ;
4 [label="X[57] <= 0.085\ngini = 0.4082\nsamples = 21\nvalue = [6, 15]"] ;
3 -> 4 ;
5 [label="gini = 0.0\nsamples = 4\nvalue = [4, 0]"] ;
4 -> 5 ;
6 [label="X[72] <= 0.535\ngini = 0.2076\nsamples = 17\nvalue = [2, 15]"] ;
4 -> 6 ;
7 [label="X[22] <= 0.135\ngini = 0.4444\nsamples = 3\nvalue = [2, 1]"] ;
6 -> 7 ;
8 [label="gini = 0.0\nsamples = 1\nvalue = [0, 1]"] ;
7 -> 8 ;
9 [label="gini = 0.0\nsamples = 2\nvalue = [2, 0]"] ;
7 -> 9 ;
10 [label="gini = 0.0\nsamples = 14\nvalue = [0, 14]"] ;
6 -> 10 ;
11 [label="X[32] <= 0.065\ngini = 0.043\nsamples = 728\nvalue = [16, 712]"] ;
3 -> 11 ;
12 [label="gini = 0.0\nsamples = 1\nvalue = [1, 0]"] ;
11 -> 12 ;
13 [label="X[15] <= 0.945\ngini = 0.0404\nsamples = 727\nvalue = [15, 712]"] ;
11 -> 13 ;
14 [label="X[33] <= 0.035\ngini = 0.0378\nsamples = 726\nvalue = [14, 712]"] ;
13 -> 14 ;
15 [label="X[20] <= 0.07\ngini = 0.4444\nsamples = 6\nvalue = [2, 4]"] ;
14 -> 15 ;
16 [label="gini = 0.0\nsamples = 2\nvalue = [2, 0]"] ;
15 -> 16 ;
17 [label="gini = 0.0\nsamples = 4\nvalue = [0, 4]"] ;
15 -> 17 ;
18 [label="X[68] <= 0.055\ngini = 0.0328\nsamples = 720\nvalue = [12, 708]"] ;
14 -> 18 ;
19 [label="X[55] <= 0.425\ngini = 0.375\nsamples = 8\nvalue = [2, 6]"] ;
18 -> 19 ;
20 [label="gini = 0.0\nsamples = 6\nvalue = [0, 6]"] ;
19 -> 20 ;
21 [label="gini = 0.0\nsamples = 2\nvalue = [2, 0]"] ;
19 -> 21 ;
22 [label="X[52] <= 0.885\ngini = 0.0277\nsamples = 712\nvalue = [10, 702]"] ;
18 -> 22 ;
23 [label="X[15] <= 0.64\ngini = 0.02\nsamples = 692\nvalue = [7, 685]"] ;
22 -> 23 ;
24 [label="X[97] <= 0.025\ngini = 0.0147\nsamples = 676\nvalue = [5, 671]"] ;
23 -> 24 ;
25 [label="X[45] <= 0.62\ngini = 0.375\nsamples = 4\nvalue = [1, 3]"] ;
24 -> 25 ;
26 [label="gini = 0.0\nsamples = 3\nvalue = [0, 3]"] ;
25 -> 26 ;
27 [label="gini = 0.0\nsamples = 1\nvalue = [1, 0]"] ;
25 -> 27 ;
28 [label="X[35] <= 0.785\ngini = 0.0118\nsamples = 672\nvalue = [4, 668]"] ;
24 -> 28 ;
29 [label="X[14] <= 0.055\ngini = 0.0061\nsamples = 655\nvalue = [2, 653]"] ;
28 -> 29 ;
30 [label="X[85] <= 0.575\ngini = 0.1172\nsamples = 16\nvalue = [1, 15]"] ;
29 -> 30 ;
31 [label="gini = 0.0\nsamples = 15\nvalue = [0, 15]"] ;
30 -> 31 ;
32 [label="gini = 0.0\nsamples = 1\nvalue = [1, 0]"] ;
30 -> 32 ;
33 [label="X[68] <= 0.075\ngini = 0.0031\nsamples = 639\nvalue = [1, 638]"] ;
29 -> 33 ;
34 [label="X[69] <= 0.635\ngini = 0.1107\nsamples = 17\nvalue = [1, 16]"] ;
33 -> 34 ;
35 [label="gini = 0.0\nsamples = 16\nvalue = [0, 16]"] ;
34 -> 35 ;
36 [label="gini = 0.0\nsamples = 1\nvalue = [1, 0]"] ;
34 -> 36 ;
37 [label="gini = 0.0\nsamples = 622\nvalue = [0, 622]"] ;
33 -> 37 ;
38 [label="X[31] <= 0.325\ngini = 0.2076\nsamples = 17\nvalue = [2, 15]"] ;
28 -> 38 ;
39 [label="X[21] <= 0.19\ngini = 0.4444\nsamples = 3\nvalue = [2, 1]"] ;
38 -> 39 ;
40 [label="gini = 0.0\nsamples = 1\nvalue = [0, 1]"] ;
39 -> 40 ;
41 [label="gini = 0.0\nsamples = 2\nvalue = [2, 0]"] ;
39 -> 41 ;
42 [label="gini = 0.0\nsamples = 14\nvalue = [0, 14]"] ;
38 -> 42 ;
43 [label="X[34] <= 0.41\ngini = 0.2188\nsamples = 16\nvalue = [2, 14]"] ;
23 -> 43 ;
44 [label="gini = 0.0\nsamples = 14\nvalue = [0, 14]"] ;
43 -> 44 ;
45 [label="gini = 0.0\nsamples = 2\nvalue = [2, 0]"] ;
43 -> 45 ;
46 [label="X[28] <= 0.415\ngini = 0.255\nsamples = 20\nvalue = [3, 17]"] ;
22 -> 46 ;
47 [label="gini = 0.0\nsamples = 2\nvalue = [2, 0]"] ;
46 -> 47 ;
48 [label="X[93] <= 0.735\ngini = 0.1049\nsamples = 18\nvalue = [1, 17]"] ;
46 -> 48 ;
49 [label="gini = 0.0\nsamples = 17\nvalue = [0, 17]"] ;
48 -> 49 ;
50 [label="gini = 0.0\nsamples = 1\nvalue = [1, 0]"] ;
48 -> 50 ;
51 [label="gini = 0.0\nsamples = 1\nvalue = [1, 0]"] ;
13 -> 51 ;
52 [label="X[26] <= 0.185\ngini = 0.3299\nsamples = 240\nvalue = [50, 190]"] ;
2 -> 52 ;
53 [label="X[45] <= 0.595\ngini = 0.4898\nsamples = 28\nvalue = [16, 12]"] ;
52 -> 53 ;
54 [label="X[42] <= 0.445\ngini = 0.355\nsamples = 13\nvalue = [3, 10]"] ;
53 -> 54 ;
55 [label="gini = 0.0\nsamples = 9\nvalue = [0, 9]"] ;
54 -> 55 ;
56 [label="X[31] <= 0.155\ngini = 0.375\nsamples = 4\nvalue = [3, 1]"] ;
54 -> 56 ;
57 [label="gini = 0.0\nsamples = 1\nvalue = [0, 1]"] ;
56 -> 57 ;
58 [label="gini = 0.0\nsamples = 3\nvalue = [3, 0]"] ;
56 -> 58 ;
59 [label="X[53] <= 0.21\ngini = 0.2311\nsamples = 15\nvalue = [13, 2]"] ;
53 -> 59 ;
60 [label="X[63] <= 0.2\ngini = 0.4444\nsamples = 3\nvalue = [1, 2]"] ;
59 -> 60 ;
61 [label="gini = 0.0\nsamples = 2\nvalue = [0, 2]"] ;
60 -> 61 ;
62 [label="gini = 0.0\nsamples = 1\nvalue = [1, 0]"] ;
60 -> 62 ;
63 [label="gini = 0.0\nsamples = 12\nvalue = [12, 0]"] ;
59 -> 63 ;
64 [label="X[30] <= 0.13\ngini = 0.2693\nsamples = 212\nvalue = [34, 178]"] ;
52 -> 64 ;
65 [label="X[88] <= 0.195\ngini = 0.32\nsamples = 5\nvalue = [4, 1]"] ;
64 -> 65 ;
66 [label="gini = 0.0\nsamples = 1\nvalue = [0, 1]"] ;
65 -> 66 ;
67 [label="gini = 0.0\nsamples = 4\nvalue = [4, 0]"] ;
65 -> 67 ;
68 [label="X[41] <= 0.645\ngini = 0.2478\nsamples = 207\nvalue = [30, 177]"] ;
64 -> 68 ;
69 [label="X[14] <= 0.285\ngini = 0.3329\nsamples = 128\nvalue = [27, 101]"] ;
68 -> 69 ;
70 [label="X[23] <= 0.105\ngini = 0.2041\nsamples = 78\nvalue = [9, 69]"] ;
69 -> 70 ;
71 [label="X[33] <= 0.505\ngini = 0.4654\nsamples = 19\nvalue = [7, 12]"] ;
70 -> 71 ;
72 [label="X[24] <= 0.25\ngini = 0.32\nsamples = 15\nvalue = [3, 12]"] ;
71 -> 72 ;
73 [label="gini = 0.0\nsamples = 10\nvalue = [0, 10]"] ;
72 -> 73 ;
74 [label="X[34] <= 0.595\ngini = 0.48\nsamples = 5\nvalue = [3, 2]"] ;
72 -> 74 ;
75 [label="gini = 0.0\nsamples = 3\nvalue = [3, 0]"] ;
74 -> 75 ;
76 [label="gini = 0.0\nsamples = 2\nvalue = [0, 2]"] ;
74 -> 76 ;
77 [label="gini = 0.0\nsamples = 4\nvalue = [4, 0]"] ;
71 -> 77 ;
78 [label="X[61] <= 0.28\ngini = 0.0655\nsamples = 59\nvalue = [2, 57]"] ;
70 -> 78 ;
79 [label="X[88] <= 0.245\ngini = 0.0351\nsamples = 56\nvalue = [1, 55]"] ;
78 -> 79 ;
80 [label="X[26] <= 0.505\ngini = 0.32\nsamples = 5\nvalue = [1, 4]"] ;
79 -> 80 ;
81 [label="gini = 0.0\nsamples = 4\nvalue = [0, 4]"] ;
80 -> 81 ;
82 [label="gini = 0.0\nsamples = 1\nvalue = [1, 0]"] ;
80 -> 82 ;
83 [label="gini = 0.0\nsamples = 51\nvalue = [0, 51]"] ;
79 -> 83 ;
84 [label="X[78] <= 0.32\ngini = 0.4444\nsamples = 3\nvalue = [1, 2]"] ;
78 -> 84 ;
85 [label="gini = 0.0\nsamples = 1\nvalue = [1, 0]"] ;
84 -> 85 ;
86 [label="gini = 0.0\nsamples = 2\nvalue = [0, 2]"] ;
84 -> 86 ;
87 [label="X[2] <= 0.015\ngini = 0.4608\nsamples = 50\nvalue = [18, 32]"] ;
69 -> 87 ;
88 [label="X[32] <= 0.39\ngini = 0.2778\nsamples = 6\nvalue = [5, 1]"] ;
87 -> 88 ;
89 [label="gini = 0.0\nsamples = 5\nvalue = [5, 0]"] ;
88 -> 89 ;
90 [label="gini = 0.0\nsamples = 1\nvalue = [0, 1]"] ;
88 -> 90 ;
91 [label="X[34] <= 0.08\ngini = 0.4163\nsamples = 44\nvalue = [13, 31]"] ;
87 -> 91 ;
92 [label="gini = 0.0\nsamples = 4\nvalue = [4, 0]"] ;
91 -> 92 ;
93 [label="X[92] <= 0.795\ngini = 0.3488\nsamples = 40\nvalue = [9, 31]"] ;
91 -> 93 ;
94 [label="X[62] <= 0.135\ngini = 0.2509\nsamples = 34\nvalue = [5, 29]"] ;
93 -> 94 ;
95 [label="X[32] <= 0.31\ngini = 0.4592\nsamples = 14\nvalue = [5, 9]"] ;
94 -> 95 ;
96 [label="gini = 0.0\nsamples = 7\nvalue = [0, 7]"] ;
95 -> 96 ;
97 [label="X[74] <= 0.115\ngini = 0.4082\nsamples = 7\nvalue = [5, 2]"] ;
95 -> 97 ;
98 [label="gini = 0.0\nsamples = 2\nvalue = [0, 2]"] ;
97 -> 98 ;
99 [label="gini = 0.0\nsamples = 5\nvalue = [5, 0]"] ;
97 -> 99 ;
100 [label="gini = 0.0\nsamples = 20\nvalue = [0, 20]"] ;
94 -> 100 ;
101 [label="X[74] <= 0.105\ngini = 0.4444\nsamples = 6\nvalue = [4, 2]"] ;
93 -> 101 ;
102 [label="gini = 0.0\nsamples = 4\nvalue = [4, 0]"] ;
101 -> 102 ;
103 [label="gini = 0.0\nsamples = 2\nvalue = [0, 2]"] ;
101 -> 103 ;
104 [label="X[68] <= 0.05\ngini = 0.0731\nsamples = 79\nvalue = [3, 76]"] ;
68 -> 104 ;
105 [label="gini = 0.0\nsamples = 1\nvalue = [1, 0]"] ;
104 -> 105 ;
106 [label="X[46] <= 0.695\ngini = 0.05\nsamples = 78\nvalue = [2, 76]"] ;
104 -> 106 ;
107 [label="X[77] <= 0.71\ngini = 0.0263\nsamples = 75\nvalue = [1, 74]"] ;
106 -> 107 ;
108 [label="gini = 0.0\nsamples = 72\nvalue = [0, 72]"] ;
107 -> 108 ;
109 [label="X[39] <= 0.355\ngini = 0.4444\nsamples = 3\nvalue = [1, 2]"] ;
107 -> 109 ;
110 [label="gini = 0.0\nsamples = 2\nvalue = [0, 2]"] ;
109 -> 110 ;
111 [label="gini = 0.0\nsamples = 1\nvalue = [1, 0]"] ;
109 -> 111 ;
112 [label="X[88] <= 0.255\ngini = 0.4444\nsamples = 3\nvalue = [1, 2]"] ;
106 -> 112 ;
113 [label="gini = 0.0\nsamples = 1\nvalue = [1, 0]"] ;
112 -> 113 ;
114 [label="gini = 0.0\nsamples = 2\nvalue = [0, 2]"] ;
112 -> 114 ;
115 [label="X[71] <= 0.055\ngini = 0.4998\nsamples = 208\nvalue = [106, 102]"] ;
1 -> 115 ;
116 [label="X[41] <= 0.465\ngini = 0.4838\nsamples = 161\nvalue = [95, 66]"] ;
115 -> 116 ;
117 [label="X[0] <= 0.025\ngini = 0.2311\nsamples = 30\nvalue = [26, 4]"] ;
116 -> 117 ;
118 [label="X[71] <= 0.045\ngini = 0.0768\nsamples = 25\nvalue = [24, 1]"] ;
117 -> 118 ;
119 [label="gini = 0.0\nsamples = 24\nvalue = [24, 0]"] ;
118 -> 119 ;
120 [label="gini = 0.0\nsamples = 1\nvalue = [0, 1]"] ;
118 -> 120 ;
121 [label="X[31] <= 0.375\ngini = 0.48\nsamples = 5\nvalue = [2, 3]"] ;
117 -> 121 ;
122 [label="gini = 0.0\nsamples = 3\nvalue = [0, 3]"] ;
121 -> 122 ;
123 [label="gini = 0.0\nsamples = 2\nvalue = [2, 0]"] ;
121 -> 123 ;
124 [label="X[46] <= 0.685\ngini = 0.4986\nsamples = 131\nvalue = [69, 62]"] ;
116 -> 124 ;
125 [label="X[50] <= 0.245\ngini = 0.4875\nsamples = 114\nvalue = [66, 48]"] ;
124 -> 125 ;
126 [label="X[89] <= 0.055\ngini = 0.4571\nsamples = 99\nvalue = [64, 35]"] ;
125 -> 126 ;
127 [label="X[55] <= 0.155\ngini = 0.4346\nsamples = 94\nvalue = [64, 30]"] ;
126 -> 127 ;
128 [label="X[48] <= 0.65\ngini = 0.4654\nsamples = 19\nvalue = [7, 12]"] ;
127 -> 128 ;
129 [label="X[60] <= 0.925\ngini = 0.4861\nsamples = 12\nvalue = [7, 5]"] ;
128 -> 129 ;
130 [label="X[33] <= 0.305\ngini = 0.4082\nsamples = 7\nvalue = [2, 5]"] ;
129 -> 130 ;
131 [label="gini = 0.0\nsamples = 2\nvalue = [2, 0]"] ;
130 -> 131 ;
132 [label="gini = 0.0\nsamples = 5\nvalue = [0, 5]"] ;
130 -> 132 ;
133 [label="gini = 0.0\nsamples = 5\nvalue = [5, 0]"] ;
129 -> 133 ;
134 [label="gini = 0.0\nsamples = 7\nvalue = [0, 7]"] ;
128 -> 134 ;
135 [label="X[47] <= 0.485\ngini = 0.3648\nsamples = 75\nvalue = [57, 18]"] ;
127 -> 135 ;
136 [label="X[34] <= 0.48\ngini = 0.4991\nsamples = 23\nvalue = [11, 12]"] ;
135 -> 136 ;
137 [label="X[47] <= 0.455\ngini = 0.18\nsamples = 10\nvalue = [1, 9]"] ;
136 -> 137 ;
138 [label="gini = 0.0\nsamples = 9\nvalue = [0, 9]"] ;
137 -> 138 ;
139 [label="gini = 0.0\nsamples = 1\nvalue = [1, 0]"] ;
137 -> 139 ;
140 [label="X[69] <= 0.51\ngini = 0.355\nsamples = 13\nvalue = [10, 3]"] ;
136 -> 140 ;
141 [label="gini = 0.0\nsamples = 9\nvalue = [9, 0]"] ;
140 -> 141 ;
142 [label="X[95] <= 0.73\ngini = 0.375\nsamples = 4\nvalue = [1, 3]"] ;
140 -> 142 ;
143 [label="gini = 0.0\nsamples = 1\nvalue = [1, 0]"] ;
142 -> 143 ;
144 [label="gini = 0.0\nsamples = 3\nvalue = [0, 3]"] ;
142 -> 144 ;
145 [label="X[22] <= 0.415\ngini = 0.2041\nsamples = 52\nvalue = [46, 6]"] ;
135 -> 145 ;
146 [label="X[32] <= 0.065\ngini = 0.1172\nsamples = 48\nvalue = [45, 3]"] ;
145 -> 146 ;
147 [label="gini = 0.0\nsamples = 1\nvalue = [0, 1]"] ;
146 -> 147 ;
148 [label="X[48] <= 0.8\ngini = 0.0815\nsamples = 47\nvalue = [45, 2]"] ;
146 -> 148 ;
149 [label="X[17] <= 0.575\ngini = 0.0425\nsamples = 46\nvalue = [45, 1]"] ;
148 -> 149 ;
150 [label="gini = 0.0\nsamples = 45\nvalue = [45, 0]"] ;
149 -> 150 ;
151 [label="gini = 0.0\nsamples = 1\nvalue = [0, 1]"] ;
149 -> 151 ;
152 [label="gini = 0.0\nsamples = 1\nvalue = [0, 1]"] ;
148 -> 152 ;
153 [label="X[75] <= 0.24\ngini = 0.375\nsamples = 4\nvalue = [1, 3]"] ;
145 -> 153 ;
154 [label="gini = 0.0\nsamples = 1\nvalue = [1, 0]"] ;
153 -> 154 ;
155 [label="gini = 0.0\nsamples = 3\nvalue = [0, 3]"] ;
153 -> 155 ;
156 [label="gini = 0.0\nsamples = 5\nvalue = [0, 5]"] ;
126 -> 156 ;
157 [label="X[95] <= 0.51\ngini = 0.2311\nsamples = 15\nvalue = [2, 13]"] ;
125 -> 157 ;
158 [label="gini = 0.0\nsamples = 1\nvalue = [1, 0]"] ;
157 -> 158 ;
159 [label="X[53] <= 0.1\ngini = 0.1327\nsamples = 14\nvalue = [1, 13]"] ;
157 -> 159 ;
160 [label="X[98] <= 0.04\ngini = 0.5\nsamples = 2\nvalue = [1, 1]"] ;
159 -> 160 ;
161 [label="gini = 0.0\nsamples = 1\nvalue = [0, 1]"] ;
160 -> 161 ;
162 [label="gini = 0.0\nsamples = 1\nvalue = [1, 0]"] ;
160 -> 162 ;
163 [label="gini = 0.0\nsamples = 12\nvalue = [0, 12]"] ;
159 -> 163 ;
164 [label="X[38] <= 0.64\ngini = 0.2907\nsamples = 17\nvalue = [3, 14]"] ;
124 -> 164 ;
165 [label="X[47] <= 0.24\ngini = 0.1244\nsamples = 15\nvalue = [1, 14]"] ;
164 -> 165 ;
166 [label="gini = 0.0\nsamples = 1\nvalue = [1, 0]"] ;
165 -> 166 ;
167 [label="gini = 0.0\nsamples = 14\nvalue = [0, 14]"] ;
165 -> 167 ;
168 [label="gini = 0.0\nsamples = 2\nvalue = [2, 0]"] ;
164 -> 168 ;
169 [label="X[44] <= 0.635\ngini = 0.3585\nsamples = 47\nvalue = [11, 36]"] ;
115 -> 169 ;
170 [label="X[29] <= 0.36\ngini = 0.2024\nsamples = 35\nvalue = [4, 31]"] ;
169 -> 170 ;
171 [label="gini = 0.0\nsamples = 23\nvalue = [0, 23]"] ;
170 -> 171 ;
172 [label="X[17] <= 0.46\ngini = 0.4444\nsamples = 12\nvalue = [4, 8]"] ;
170 -> 172 ;
173 [label="X[98] <= 0.175\ngini = 0.32\nsamples = 5\nvalue = [4, 1]"] ;
172 -> 173 ;
174 [label="gini = 0.0\nsamples = 4\nvalue = [4, 0]"] ;
173 -> 174 ;
175 [label="gini = 0.0\nsamples = 1\nvalue = [0, 1]"] ;
173 -> 175 ;
176 [label="gini = 0.0\nsamples = 7\nvalue = [0, 7]"] ;
172 -> 176 ;
177 [label="X[61] <= 0.085\ngini = 0.4861\nsamples = 12\nvalue = [7, 5]"] ;
169 -> 177 ;
178 [label="X[45] <= 0.665\ngini = 0.2188\nsamples = 8\nvalue = [7, 1]"] ;
177 -> 178 ;
179 [label="gini = 0.0\nsamples = 1\nvalue = [0, 1]"] ;
178 -> 179 ;
180 [label="gini = 0.0\nsamples = 7\nvalue = [7, 0]"] ;
178 -> 180 ;
181 [label="gini = 0.0\nsamples = 4\nvalue = [0, 4]"] ;
177 -> 181 ;
182 [label="X[5] <= 0.075\ngini = 0.412\nsamples = 796\nvalue = [565, 231]"] ;
0 -> 182 [labeldistance=2.5, labelangle=-45, headlabel="False"] ;
183 [label="X[44] <= 0.805\ngini = 0.3164\nsamples = 599\nvalue = [481, 118]"] ;
182 -> 183 ;
184 [label="X[85] <= 0.325\ngini = 0.4444\nsamples = 249\nvalue = [166, 83]"] ;
183 -> 184 ;
185 [label="X[3] <= 0.895\ngini = 0.3285\nsamples = 111\nvalue = [88, 23]"] ;
184 -> 185 ;
186 [label="X[77] <= 0.195\ngini = 0.4959\nsamples = 22\nvalue = [12, 10]"] ;
185 -> 186 ;
187 [label="X[31] <= 0.24\ngini = 0.3367\nsamples = 14\nvalue = [11, 3]"] ;
186 -> 187 ;
188 [label="gini = 0.0\nsamples = 2\nvalue = [0, 2]"] ;
187 -> 188 ;
189 [label="X[22] <= 0.38\ngini = 0.1528\nsamples = 12\nvalue = [11, 1]"] ;
187 -> 189 ;
190 [label="gini = 0.0\nsamples = 11\nvalue = [11, 0]"] ;
189 -> 190 ;
191 [label="gini = 0.0\nsamples = 1\nvalue = [0, 1]"] ;
189 -> 191 ;
192 [label="X[83] <= 0.175\ngini = 0.2188\nsamples = 8\nvalue = [1, 7]"] ;
186 -> 192 ;
193 [label="gini = 0.0\nsamples = 1\nvalue = [1, 0]"] ;
192 -> 193 ;
194 [label="gini = 0.0\nsamples = 7\nvalue = [0, 7]"] ;
192 -> 194 ;
195 [label="X[90] <= 0.035\ngini = 0.2495\nsamples = 89\nvalue = [76, 13]"] ;
185 -> 195 ;
196 [label="X[29] <= 0.085\ngini = 0.2209\nsamples = 87\nvalue = [76, 11]"] ;
195 -> 196 ;
197 [label="gini = 0.0\nsamples = 2\nvalue = [0, 2]"] ;
196 -> 197 ;
198 [label="X[23] <= 0.205\ngini = 0.1893\nsamples = 85\nvalue = [76, 9]"] ;
196 -> 198 ;
199 [label="X[60] <= 0.685\ngini = 0.0615\nsamples = 63\nvalue = [61, 2]"] ;
198 -> 199 ;
200 [label="gini = 0.0\nsamples = 1\nvalue = [0, 1]"] ;
199 -> 200 ;
201 [label="X[78] <= 0.74\ngini = 0.0317\nsamples = 62\nvalue = [61, 1]"] ;
199 -> 201 ;
202 [label="gini = 0.0\nsamples = 61\nvalue = [61, 0]"] ;
201 -> 202 ;
203 [label="gini = 0.0\nsamples = 1\nvalue = [0, 1]"] ;
201 -> 203 ;
204 [label="X[24] <= 0.4\ngini = 0.4339\nsamples = 22\nvalue = [15, 7]"] ;
198 -> 204 ;
205 [label="X[29] <= 0.34\ngini = 0.3324\nsamples = 19\nvalue = [15, 4]"] ;
204 -> 205 ;
206 [label="X[92] <= 0.675\ngini = 0.2076\nsamples = 17\nvalue = [15, 2]"] ;
205 -> 206 ;
207 [label="X[31] <= 0.24\ngini = 0.4444\nsamples = 3\nvalue = [1, 2]"] ;
206 -> 207 ;
208 [label="gini = 0.0\nsamples = 1\nvalue = [1, 0]"] ;
207 -> 208 ;
209 [label="gini = 0.0\nsamples = 2\nvalue = [0, 2]"] ;
207 -> 209 ;
210 [label="gini = 0.0\nsamples = 14\nvalue = [14, 0]"] ;
206 -> 210 ;
211 [label="gini = 0.0\nsamples = 2\nvalue = [0, 2]"] ;
205 -> 211 ;
212 [label="gini = 0.0\nsamples = 3\nvalue = [0, 3]"] ;
204 -> 212 ;
213 [label="gini = 0.0\nsamples = 2\nvalue = [0, 2]"] ;
195 -> 213 ;
214 [label="X[60] <= 0.855\ngini = 0.4915\nsamples = 138\nvalue = [78, 60]"] ;
184 -> 214 ;
215 [label="X[67] <= 0.505\ngini = 0.3702\nsamples = 53\nvalue = [40, 13]"] ;
214 -> 215 ;
216 [label="gini = 0.0\nsamples = 5\nvalue = [0, 5]"] ;
215 -> 216 ;
217 [label="X[62] <= 0.235\ngini = 0.2778\nsamples = 48\nvalue = [40, 8]"] ;
215 -> 217 ;
218 [label="X[37] <= 0.785\ngini = 0.142\nsamples = 39\nvalue = [36, 3]"] ;
217 -> 218 ;
219 [label="X[81] <= 0.205\ngini = 0.0997\nsamples = 38\nvalue = [36, 2]"] ;
218 -> 219 ;
220 [label="gini = 0.0\nsamples = 1\nvalue = [0, 1]"] ;
219 -> 220 ;
221 [label="X[86] <= 0.29\ngini = 0.0526\nsamples = 37\nvalue = [36, 1]"] ;
219 -> 221 ;
222 [label="X[31] <= 0.335\ngini = 0.5\nsamples = 2\nvalue = [1, 1]"] ;
221 -> 222 ;
223 [label="gini = 0.0\nsamples = 1\nvalue = [0, 1]"] ;
222 -> 223 ;
224 [label="gini = 0.0\nsamples = 1\nvalue = [1, 0]"] ;
222 -> 224 ;
225 [label="gini = 0.0\nsamples = 35\nvalue = [35, 0]"] ;
221 -> 225 ;
226 [label="gini = 0.0\nsamples = 1\nvalue = [0, 1]"] ;
218 -> 226 ;
227 [label="X[29] <= 0.175\ngini = 0.4938\nsamples = 9\nvalue = [4, 5]"] ;
217 -> 227 ;
228 [label="gini = 0.0\nsamples = 4\nvalue = [4, 0]"] ;
227 -> 228 ;
229 [label="gini = 0.0\nsamples = 5\nvalue = [0, 5]"] ;
227 -> 229 ;
230 [label="X[25] <= 0.095\ngini = 0.4944\nsamples = 85\nvalue = [38, 47]"] ;
214 -> 230 ;
231 [label="X[22] <= 0.61\ngini = 0.32\nsamples = 15\nvalue = [12, 3]"] ;
230 -> 231 ;
232 [label="gini = 0.0\nsamples = 12\nvalue = [12, 0]"] ;
231 -> 232 ;
233 [label="gini = 0.0\nsamples = 3\nvalue = [0, 3]"] ;
231 -> 233 ;
234 [label="X[55] <= 0.19\ngini = 0.4669\nsamples = 70\nvalue = [26, 44]"] ;
230 -> 234 ;
235 [label="X[76] <= 0.41\ngini = 0.4654\nsamples = 19\nvalue = [12, 7]"] ;
234 -> 235 ;
236 [label="X[63] <= 0.125\ngini = 0.2778\nsamples = 6\nvalue = [1, 5]"] ;
235 -> 236 ;
237 [label="gini = 0.0\nsamples = 1\nvalue = [1, 0]"] ;
236 -> 237 ;
238 [label="gini = 0.0\nsamples = 5\nvalue = [0, 5]"] ;
236 -> 238 ;
239 [label="X[62] <= 0.205\ngini = 0.2604\nsamples = 13\nvalue = [11, 2]"] ;
235 -> 239 ;
240 [label="gini = 0.0\nsamples = 10\nvalue = [10, 0]"] ;
239 -> 240 ;
241 [label="X[26] <= 0.615\ngini = 0.4444\nsamples = 3\nvalue = [1, 2]"] ;
239 -> 241 ;
242 [label="gini = 0.0\nsamples = 2\nvalue = [0, 2]"] ;
241 -> 242 ;
243 [label="gini = 0.0\nsamples = 1\nvalue = [1, 0]"] ;
241 -> 243 ;
244 [label="X[73] <= 0.485\ngini = 0.3983\nsamples = 51\nvalue = [14, 37]"] ;
234 -> 244 ;
245 [label="gini = 0.0\nsamples = 3\nvalue = [3, 0]"] ;
244 -> 245 ;
246 [label="X[88] <= 0.155\ngini = 0.3533\nsamples = 48\nvalue = [11, 37]"] ;
244 -> 246 ;
247 [label="gini = 0.0\nsamples = 3\nvalue = [3, 0]"] ;
246 -> 247 ;
248 [label="X[67] <= 0.785\ngini = 0.2923\nsamples = 45\nvalue = [8, 37]"] ;
246 -> 248 ;
249 [label="X[85] <= 0.665\ngini = 0.1841\nsamples = 39\nvalue = [4, 35]"] ;
248 -> 249 ;
250 [label="X[29] <= 0.285\ngini = 0.1049\nsamples = 36\nvalue = [2, 34]"] ;
249 -> 250 ;
251 [label="X[69] <= 0.175\ngini = 0.0555\nsamples = 35\nvalue = [1, 34]"] ;
250 -> 251 ;
252 [label="gini = 0.0\nsamples = 1\nvalue = [1, 0]"] ;
251 -> 252 ;
253 [label="gini = 0.0\nsamples = 34\nvalue = [0, 34]"] ;
251 -> 253 ;
254 [label="gini = 0.0\nsamples = 1\nvalue = [1, 0]"] ;
250 -> 254 ;
255 [label="X[83] <= 0.76\ngini = 0.4444\nsamples = 3\nvalue = [2, 1]"] ;
249 -> 255 ;
256 [label="gini = 0.0\nsamples = 2\nvalue = [2, 0]"] ;
255 -> 256 ;
257 [label="gini = 0.0\nsamples = 1\nvalue = [0, 1]"] ;
255 -> 257 ;
258 [label="X[91] <= 0.12\ngini = 0.4444\nsamples = 6\nvalue = [4, 2]"] ;
248 -> 258 ;
259 [label="gini = 0.0\nsamples = 4\nvalue = [4, 0]"] ;
258 -> 259 ;
260 [label="gini = 0.0\nsamples = 2\nvalue = [0, 2]"] ;
258 -> 260 ;
261 [label="X[39] <= 0.405\ngini = 0.18\nsamples = 350\nvalue = [315, 35]"] ;
183 -> 261 ;
262 [label="X[29] <= 0.535\ngini = 0.1129\nsamples = 283\nvalue = [266, 17]"] ;
261 -> 262 ;
263 [label="X[82] <= 0.11\ngini = 0.095\nsamples = 280\nvalue = [266, 14]"] ;
262 -> 263 ;
264 [label="gini = 0.0\nsamples = 2\nvalue = [0, 2]"] ;
263 -> 264 ;
265 [label="X[87] <= 0.085\ngini = 0.0826\nsamples = 278\nvalue = [266, 12]"] ;
263 -> 265 ;
266 [label="X[30] <= 0.135\ngini = 0.4444\nsamples = 3\nvalue = [1, 2]"] ;
265 -> 266 ;
267 [label="gini = 0.0\nsamples = 1\nvalue = [1, 0]"] ;
266 -> 267 ;
268 [label="gini = 0.0\nsamples = 2\nvalue = [0, 2]"] ;
266 -> 268 ;
269 [label="X[43] <= 0.745\ngini = 0.0701\nsamples = 275\nvalue = [265, 10]"] ;
265 -> 269 ;
270 [label="gini = 0.0\nsamples = 1\nvalue = [0, 1]"] ;
269 -> 270 ;
271 [label="X[72] <= 0.03\ngini = 0.0635\nsamples = 274\nvalue = [265, 9]"] ;
269 -> 271 ;
272 [label="gini = 0.0\nsamples = 1\nvalue = [0, 1]"] ;
271 -> 272 ;
273 [label="X[61] <= 0.205\ngini = 0.0569\nsamples = 273\nvalue = [265, 8]"] ;
271 -> 273 ;
274 [label="X[95] <= 0.515\ngini = 0.0503\nsamples = 271\nvalue = [264, 7]"] ;
273 -> 274 ;
275 [label="X[59] <= 0.025\ngini = 0.1866\nsamples = 48\nvalue = [43, 5]"] ;
274 -> 275 ;
276 [label="X[18] <= 0.185\ngini = 0.375\nsamples = 4\nvalue = [1, 3]"] ;
275 -> 276 ;
277 [label="gini = 0.0\nsamples = 1\nvalue = [1, 0]"] ;
276 -> 277 ;
278 [label="gini = 0.0\nsamples = 3\nvalue = [0, 3]"] ;
276 -> 278 ;
279 [label="X[66] <= 0.125\ngini = 0.0868\nsamples = 44\nvalue = [42, 2]"] ;
275 -> 279 ;
280 [label="gini = 0.0\nsamples = 1\nvalue = [0, 1]"] ;
279 -> 280 ;
281 [label="X[72] <= 0.915\ngini = 0.0454\nsamples = 43\nvalue = [42, 1]"] ;
279 -> 281 ;
282 [label="gini = 0.0\nsamples = 41\nvalue = [41, 0]"] ;
281 -> 282 ;
283 [label="X[72] <= 0.96\ngini = 0.5\nsamples = 2\nvalue = [1, 1]"] ;
281 -> 283 ;
284 [label="gini = 0.0\nsamples = 1\nvalue = [0, 1]"] ;
283 -> 284 ;
285 [label="gini = 0.0\nsamples = 1\nvalue = [1, 0]"] ;
283 -> 285 ;
286 [label="X[94] <= 0.905\ngini = 0.0178\nsamples = 223\nvalue = [221, 2]"] ;
274 -> 286 ;
287 [label="gini = 0.0\nsamples = 210\nvalue = [210, 0]"] ;
286 -> 287 ;
288 [label="X[34] <= 0.48\ngini = 0.2604\nsamples = 13\nvalue = [11, 2]"] ;
286 -> 288 ;
289 [label="gini = 0.0\nsamples = 10\nvalue = [10, 0]"] ;
288 -> 289 ;
290 [label="X[69] <= 0.23\ngini = 0.4444\nsamples = 3\nvalue = [1, 2]"] ;
288 -> 290 ;
291 [label="gini = 0.0\nsamples = 1\nvalue = [1, 0]"] ;
290 -> 291 ;
292 [label="gini = 0.0\nsamples = 2\nvalue = [0, 2]"] ;
290 -> 292 ;
293 [label="X[86] <= 0.465\ngini = 0.5\nsamples = 2\nvalue = [1, 1]"] ;
273 -> 293 ;
294 [label="gini = 0.0\nsamples = 1\nvalue = [0, 1]"] ;
293 -> 294 ;
295 [label="gini = 0.0\nsamples = 1\nvalue = [1, 0]"] ;
293 -> 295 ;
296 [label="gini = 0.0\nsamples = 3\nvalue = [0, 3]"] ;
262 -> 296 ;
297 [label="X[92] <= 0.905\ngini = 0.393\nsamples = 67\nvalue = [49, 18]"] ;
261 -> 297 ;
298 [label="X[7] <= 0.345\ngini = 0.3589\nsamples = 64\nvalue = [49, 15]"] ;
297 -> 298 ;
299 [label="gini = 0.0\nsamples = 3\nvalue = [0, 3]"] ;
298 -> 299 ;
300 [label="X[55] <= 0.335\ngini = 0.316\nsamples = 61\nvalue = [49, 12]"] ;
298 -> 300 ;
301 [label="X[5] <= 0.065\ngini = 0.1172\nsamples = 32\nvalue = [30, 2]"] ;
300 -> 301 ;
302 [label="X[26] <= 0.255\ngini = 0.0624\nsamples = 31\nvalue = [30, 1]"] ;
301 -> 302 ;
303 [label="X[60] <= 0.89\ngini = 0.4444\nsamples = 3\nvalue = [2, 1]"] ;
302 -> 303 ;
304 [label="gini = 0.0\nsamples = 2\nvalue = [2, 0]"] ;
303 -> 304 ;
305 [label="gini = 0.0\nsamples = 1\nvalue = [0, 1]"] ;
303 -> 305 ;
306 [label="gini = 0.0\nsamples = 28\nvalue = [28, 0]"] ;
302 -> 306 ;
307 [label="gini = 0.0\nsamples = 1\nvalue = [0, 1]"] ;
301 -> 307 ;
308 [label="X[95] <= 0.705\ngini = 0.4518\nsamples = 29\nvalue = [19, 10]"] ;
300 -> 308 ;
309 [label="X[78] <= 0.225\ngini = 0.3299\nsamples = 24\nvalue = [19, 5]"] ;
308 -> 309 ;
310 [label="X[47] <= 0.615\ngini = 0.18\nsamples = 20\nvalue = [18, 2]"] ;
309 -> 310 ;
311 [label="X[34] <= 0.525\ngini = 0.0997\nsamples = 19\nvalue = [18, 1]"] ;
310 -> 311 ;
312 [label="gini = 0.0\nsamples = 17\nvalue = [17, 0]"] ;
311 -> 312 ;
313 [label="X[80] <= 0.315\ngini = 0.5\nsamples = 2\nvalue = [1, 1]"] ;
311 -> 313 ;
314 [label="gini = 0.0\nsamples = 1\nvalue = [1, 0]"] ;
313 -> 314 ;
315 [label="gini = 0.0\nsamples = 1\nvalue = [0, 1]"] ;
313 -> 315 ;
316 [label="gini = 0.0\nsamples = 1\nvalue = [0, 1]"] ;
310 -> 316 ;
317 [label="X[61] <= 0.035\ngini = 0.375\nsamples = 4\nvalue = [1, 3]"] ;
309 -> 317 ;
318 [label="gini = 0.0\nsamples = 1\nvalue = [1, 0]"] ;
317 -> 318 ;
319 [label="gini = 0.0\nsamples = 3\nvalue = [0, 3]"] ;
317 -> 319 ;
320 [label="gini = 0.0\nsamples = 5\nvalue = [0, 5]"] ;
308 -> 320 ;
321 [label="gini = 0.0\nsamples = 3\nvalue = [0, 3]"] ;
297 -> 321 ;
322 [label="X[44] <= 0.785\ngini = 0.4892\nsamples = 197\nvalue = [84, 113]"] ;
182 -> 322 ;
323 [label="X[75] <= 0.425\ngini = 0.3974\nsamples = 117\nvalue = [32, 85]"] ;
322 -> 323 ;
324 [label="X[73] <= 0.515\ngini = 0.2832\nsamples = 82\nvalue = [14, 68]"] ;
323 -> 324 ;
325 [label="X[52] <= 0.22\ngini = 0.4764\nsamples = 23\nvalue = [9, 14]"] ;
324 -> 325 ;
326 [label="gini = 0.0\nsamples = 4\nvalue = [4, 0]"] ;
325 -> 326 ;
327 [label="X[72] <= 0.86\ngini = 0.3878\nsamples = 19\nvalue = [5, 14]"] ;
325 -> 327 ;
328 [label="X[33] <= 0.485\ngini = 0.2188\nsamples = 16\nvalue = [2, 14]"] ;
327 -> 328 ;
329 [label="X[77] <= 0.055\ngini = 0.4444\nsamples = 3\nvalue = [2, 1]"] ;
328 -> 329 ;
330 [label="gini = 0.0\nsamples = 1\nvalue = [0, 1]"] ;
329 -> 330 ;
331 [label="gini = 0.0\nsamples = 2\nvalue = [2, 0]"] ;
329 -> 331 ;
332 [label="gini = 0.0\nsamples = 13\nvalue = [0, 13]"] ;
328 -> 332 ;
333 [label="gini = 0.0\nsamples = 3\nvalue = [3, 0]"] ;
327 -> 333 ;
334 [label="X[83] <= 0.83\ngini = 0.1551\nsamples = 59\nvalue = [5, 54]"] ;
324 -> 334 ;
335 [label="X[93] <= 0.795\ngini = 0.1014\nsamples = 56\nvalue = [3, 53]"] ;
334 -> 335 ;
336 [label="X[46] <= 0.505\ngini = 0.0701\nsamples = 55\nvalue = [2, 53]"] ;
335 -> 336 ;
337 [label="gini = 0.0\nsamples = 1\nvalue = [1, 0]"] ;
336 -> 337 ;
338 [label="X[18] <= 0.255\ngini = 0.0364\nsamples = 54\nvalue = [1, 53]"] ;
336 -> 338 ;
339 [label="X[38] <= 0.54\ngini = 0.5\nsamples = 2\nvalue = [1, 1]"] ;
338 -> 339 ;
340 [label="gini = 0.0\nsamples = 1\nvalue = [1, 0]"] ;
339 -> 340 ;
341 [label="gini = 0.0\nsamples = 1\nvalue = [0, 1]"] ;
339 -> 341 ;
342 [label="gini = 0.0\nsamples = 52\nvalue = [0, 52]"] ;
338 -> 342 ;
343 [label="gini = 0.0\nsamples = 1\nvalue = [1, 0]"] ;
335 -> 343 ;
344 [label="X[9] <= 0.165\ngini = 0.4444\nsamples = 3\nvalue = [2, 1]"] ;
334 -> 344 ;
345 [label="gini = 0.0\nsamples = 2\nvalue = [2, 0]"] ;
344 -> 345 ;
346 [label="gini = 0.0\nsamples = 1\nvalue = [0, 1]"] ;
344 -> 346 ;
347 [label="X[95] <= 0.76\ngini = 0.4996\nsamples = 35\nvalue = [18, 17]"] ;
323 -> 347 ;
348 [label="X[36] <= 0.185\ngini = 0.4082\nsamples = 21\nvalue = [6, 15]"] ;
347 -> 348 ;
349 [label="gini = 0.0\nsamples = 4\nvalue = [4, 0]"] ;
348 -> 349 ;
350 [label="X[25] <= 0.53\ngini = 0.2076\nsamples = 17\nvalue = [2, 15]"] ;
348 -> 350 ;
351 [label="X[77] <= 0.35\ngini = 0.1172\nsamples = 16\nvalue = [1, 15]"] ;
350 -> 351 ;
352 [label="gini = 0.0\nsamples = 15\nvalue = [0, 15]"] ;
351 -> 352 ;
353 [label="gini = 0.0\nsamples = 1\nvalue = [1, 0]"] ;
351 -> 353 ;
354 [label="gini = 0.0\nsamples = 1\nvalue = [1, 0]"] ;
350 -> 354 ;
355 [label="X[2] <= 0.11\ngini = 0.2449\nsamples = 14\nvalue = [12, 2]"] ;
347 -> 355 ;
356 [label="gini = 0.0\nsamples = 11\nvalue = [11, 0]"] ;
355 -> 356 ;
357 [label="X[61] <= 0.075\ngini = 0.4444\nsamples = 3\nvalue = [1, 2]"] ;
355 -> 357 ;
358 [label="gini = 0.0\nsamples = 1\nvalue = [1, 0]"] ;
357 -> 358 ;
359 [label="gini = 0.0\nsamples = 2\nvalue = [0, 2]"] ;
357 -> 359 ;
360 [label="X[85] <= 0.965\ngini = 0.455\nsamples = 80\nvalue = [52, 28]"] ;
322 -> 360 ;
361 [label="X[91] <= 0.11\ngini = 0.4211\nsamples = 73\nvalue = [51, 22]"] ;
360 -> 361 ;
362 [label="X[53] <= 0.15\ngini = 0.4592\nsamples = 14\nvalue = [5, 9]"] ;
361 -> 362 ;
363 [label="gini = 0.0\nsamples = 4\nvalue = [4, 0]"] ;
362 -> 363 ;
364 [label="X[23] <= 0.075\ngini = 0.18\nsamples = 10\nvalue = [1, 9]"] ;
362 -> 364 ;
365 [label="gini = 0.0\nsamples = 1\nvalue = [1, 0]"] ;
364 -> 365 ;
366 [label="gini = 0.0\nsamples = 9\nvalue = [0, 9]"] ;
364 -> 366 ;
367 [label="X[51] <= 0.035\ngini = 0.3436\nsamples = 59\nvalue = [46, 13]"] ;
361 -> 367 ;
368 [label="X[87] <= 0.915\ngini = 0.142\nsamples = 39\nvalue = [36, 3]"] ;
367 -> 368 ;
369 [label="X[56] <= 0.025\ngini = 0.054\nsamples = 36\nvalue = [35, 1]"] ;
368 -> 369 ;
370 [label="gini = 0.0\nsamples = 1\nvalue = [0, 1]"] ;
369 -> 370 ;
371 [label="gini = 0.0\nsamples = 35\nvalue = [35, 0]"] ;
369 -> 371 ;
372 [label="X[10] <= 0.035\ngini = 0.4444\nsamples = 3\nvalue = [1, 2]"] ;
368 -> 372 ;
373 [label="gini = 0.0\nsamples = 2\nvalue = [0, 2]"] ;
372 -> 373 ;
374 [label="gini = 0.0\nsamples = 1\nvalue = [1, 0]"] ;
372 -> 374 ;
375 [label="X[28] <= 0.065\ngini = 0.5\nsamples = 20\nvalue = [10, 10]"] ;
367 -> 375 ;
376 [label="gini = 0.0\nsamples = 5\nvalue = [5, 0]"] ;
375 -> 376 ;
377 [label="X[24] <= 0.385\ngini = 0.4444\nsamples = 15\nvalue = [5, 10]"] ;
375 -> 377 ;
378 [label="X[34] <= 0.31\ngini = 0.4082\nsamples = 7\nvalue = [5, 2]"] ;
377 -> 378 ;
379 [label="gini = 0.0\nsamples = 2\nvalue = [0, 2]"] ;
378 -> 379 ;
380 [label="gini = 0.0\nsamples = 5\nvalue = [5, 0]"] ;
378 -> 380 ;
381 [label="gini = 0.0\nsamples = 8\nvalue = [0, 8]"] ;
377 -> 381 ;
382 [label="X[46] <= 0.72\ngini = 0.2449\nsamples = 7\nvalue = [1, 6]"] ;
360 -> 382 ;
383 [label="gini = 0.0\nsamples = 1\nvalue = [1, 0]"] ;
382 -> 383 ;
384 [label="gini = 0.0\nsamples = 6\nvalue = [0, 6]"] ;
382 -> 384 ;
}